# name, features, hidden_layer_size, weights...
1, 17, 10, -0.003576751877069098, -0.009116435789084176, -1.6226750298069816, -0.16936583840464212, -0.24767811424335412, 2.917597689195209, -0.4660835078234858, 2.6077233900451704, 0.007654525451496821, 0.24926329904868214, 0.21300509813065255, -0.0008610492369117186, 11.910547784868735, 2.450594158758787, 0.438355335722304, 0.006477151246808702, 0.5741536766363411, 0.02462418508554424, -0.0012988442322510215, 0.0007818404074661314, -0.002036906591412471, 0.016377924735041065, 0.04992731920552376, 0.0012509393723994738, 0.6973411226261182, 0.0006254912910491841, 0.00047099174257766177, -0.002120731786945985, 1.1254335327814609, -10.370786178893706, -0.00012469149030800645, 0.14436761320287467, 0.05611140973019576, -0.0016366743010876627, 0.00017168216291285577, -0.03946773816864551, -0.027087785966378175, -0.0007127387952544514, -0.004271912479467591, 0.5150421588241055, -0.22941179431864933, -0.0095554420516546, 0.11309512942058234, 0.02928026671350157, -0.004271549294336798, -0.0003315179614494489, 2.211285732697422, -0.11740200028568301, 0.0009962379719110528, -0.01111880489200713, 0.38552547023537326, 0.6318823670906345, -0.0004549864001234058, -2.556634055201679e-05, 0.052307029094913166, 0.8482608143343549, -0.7883518269801311, 0.032301738665859676, -0.0014778900364928135, -0.34455529892325604, 0.008125911048136848, 0.014152066117414049, -0.0019236013490204697, -0.003920029943239384, 0.029085767655998903, -0.0008784550881728423, 0.3435901596510554, 0.24771915413070683, 0.002312235900247917, -0.0003165849275334269, 0.0005596038341596242, -0.0024919150553704052, 0.05815458270598197, -0.1937018502492227, -1.8250738932528443, 4.157186180134131e-05, 2.943061662102853, 0.010778535125806234, -0.032512597224797754, -0.0003246595897432385, -0.0002458206802779675, 0.1541076435270061, 0.0037925444350366067, -0.6188869890845022, -0.22716430588908995, -0.01181908469964059, 1.5038480327390307, -0.14416872049137233, 0.0005042076266357683, -0.017810077795893765, 0.03526366076440114, 0.011060422025572895, -0.021332183741068406, 0.002780275496938823, -0.026230933918782513, -0.0008086310525332234, 0.17064687599674258, 0.2726954877308398, 0.06579094358724917, -0.1520859776087798, -0.003111942863901281, -0.0006907666533775145, 0.3541898175141693, 0.0009279324771965426, -1.02678577891704, 0.14334521747927695, -0.004071610961189254, -0.001207893735478954, -0.011071821668055959, 0.000339516787811465, -0.012354976869052762, -0.017792122689835564, 0.04000839684019883, 0.0007450282331100439, 1.7663136890716324, -2.8277851231760667, -0.013925796175438333, -0.7759116432724652, 0.9526400227212101, 1.3224921501299892e-05, -0.0472823771149402, -0.32139561926038845, -0.16281957543641462, -0.4544552413988827, 8.104457695593522e-07, 0.0012604615893040117, -0.2708836008719851, -0.015954274981653523, -0.18085568354803125, 9.719261607120993e-05, 0.008911006689136518, 0.6283406438091257, -0.020845703085579134, -8.2991081457223e-06, 0.1680487638909446, 0.12338311971516569, 0.6374359553174332, 0.0068708780599514305, 7.161994834226168, 0.037717458897906064, -0.08166498393224347, -0.0003866864661065885, -0.035928030476597095, -0.5306343046712498, -0.03731815115135128, 0.1601186601162489, 0.061793412985435066, -0.008245437643649127, -0.1329836372733803, -1.0593300674284343e-05, 0.006000911165890601, -0.024349113092127842, -0.038064952345485834, -0.6717215031589087, -0.25600136304175464, -0.00013788514988313308, 0.10903737627345898, -0.04109950353425148, 0.0011818144689657514, 0.4612177668674218, 0.017157983078021726, -0.0002922370212791781, -0.07461385101326228, -0.03691138985965549, 0.0002672500155187832, -0.4629422134737055, -0.03204962494694291, -0.0398035296303568, -0.0019614192106946335, 0.07062072632793034, -0.3807648841924845, -0.4077410732754568, 0.6351755873193442, -0.0012896440044397849, 5.964694012083687, 0.02153817770055385, 1.4528610065395318, 0.015807271234472182, 0.061063626330635286, 0.0022982937511943397, 0.00036535725718584393, -1.2067515566616847, 0.7988787224726943, 0.0003472294024470962, 1.7209686798616755, -0.11950387113947813, 4.59513750232414, 0.020556451924523336, 0.004404012690064921, 0.4359433744065976
5, 17, 5, 8.375423053834833, 0.1261030984458249, 0.6229687391287315, 1.0555619366240612, -1.9827656871308919, -0.30176066062316664, 6.1600656056537675, -0.32706569135615116, 0.17754613107044848, -5.1210074171192765, 0.8979654555091046, -5.775137721839209, 0.7370167100617766, -0.40766774847049836, -0.6871675824007146, -0.8851561068477862, -0.9380236569734701, -0.1061808689087742, -28.80056165348774, 0.34099380260727474, -0.9296496325235885, -0.29951155013186037, 0.29452753742059645, -2.647358318342513, 2.8665522715028073, -15.53334649858335, 0.7458724656392226, -0.46189164035783054, -45.86292727785617, -0.497764265530173, -2.7548363861243095, -0.05026908852575242, -2.347984197105825, -0.7036132052075461, -0.2849544137414548, 0.44648317127627624, -1.8113293861070814, 0.6606796392423389, 0.4306779425473901, 29.255936983349343, 0.6292845850187647, 5.06082751852397, -217.23797221991887, 7.01016283354761, 8.272946939494153, -0.002750158149020354, -4.936706563050966, -0.00040809727294092074, 3.293211441510604, -0.6859683357257031, -5.651191144070032, 3.6461265120866924, 7.356445034460227, -0.22995023247988478, 2.3442255604221587, 0.39246521035761583, -0.2968903517444873, -0.9616537001818733, -1.6956961159311899, 2.3905634050127715, -4.77893872195609, 0.9288780448229095, 3.5762554351730933, 0.5350328980460679, -1.5702444440191612, 0.4752602404076749, -3.9372948763422646, -0.528493807036809, 1.1247837165608066, -0.9593501671395235, -0.5303714820063201, 5.906832815840155, 0.572385895065991, 0.3226387472904857, 0.9290757921455962, 24.31294609099736, -1.0011403399292698, 6.745168904740927, -3.90212207698002, -0.8800864567120545, -0.7341660866134236, -192.0075807720621, -0.49958332808652584, -0.8512291478997993, -1.706530475715973, 1.9988262858968837, -4.665904353363123, 0.5053151191945213, 0.7049630921679941, -9.96377368732609, 0.8824473820630665, 0.23343212093733712, 0.2142209846364116, -0.9862047147870845, -0.17219465582984883
05, 17, 10, 29.021994753071542, 219.61101763155014, 1063.1637806214826, 1.5402562950828715, -77.95303186313585, 267.89223675325087, -49.5387828788577, -2.6011267194406376, 7.9674134543620765, 0.36744774780513845, 5.705857800529822, 74.5118260372338, 3.7815106388865365, 21.61749723216825, 2.615374769007371, -4.956048693418373, 16.265812089010854, -0.5971830913092495, 2.713007610795036, -15.988422780527246, 41.18700942536512, -211.6875277650788, -31.37916591033693, -3.18731153755138, 18.832459315193752, 2.182876315654387, 41.05501370495859, 21.037499124712344, -57.26580763667314, -20.73478679472237, 740.6044026693244, -646.6449426951316, 0.44262545614783516, 494.2330468894694, 30.556660213698716, 343.9523623015607, 6.258536671356227, 1.0331025110993781, 62.81670440214398, 2.050717650327349, -55.29911348831866, 0.12013585846685129, -3.525491825550343, 0.8521619825666777, 3.4021706792885125, 65.68959431318048, 59.034749752903124, 1.3960644749995557, 2.123080169102119, 2.0050790443493076, 18.01173172947066, -1.9594306080033703, 3.7143617968441305, 22.876875520928664, 127.1242771884875, 0.0814516747526633, 0.4188117166094544, -22.619347347805416, -1.350231296139859, 4.609695056493578, 14.813685333260361, 1.8151813422230947, -0.6152760521682589, 56.3968593809663, 0.5291526645626778, 45.623429663362224, 1.4083765751129795, -1.7979107689200213, -133.3907099906686, 332.9190743029093, -16.69584638750235, 0.7547746912890307, -0.16129548581544273, 32.07685387989524, -4.777007155188058, -584.0074143353936, -14.203844806356123, -0.7125043485338549, -0.2532414942567335, 0.2424235301321644, -2.7332162070444226, -11.048512432203255, -0.5750784745602715, -6.583495964988355, 0.8021313004801964, -4.136750110674422, 3.422252093595686, 0.5684967669851626, 4.9238081210747495, 14.503412467481546, 54.52845388844175, 0.7444572732509133, -191.72509441846645, 0.5480848987938383, 42.27959932760183, 48.881469586945215, 148.71234309798186, 6.259832845972374, -12.448568209113635, 0.4971964655854716, -3.9250934452151536, -5.509873014504808, -5.003451989805698, -14.764803995567945, 1.144289717030508, 11.1813993197904, -799.551976894276, -2.305546912955449, 1.623001769439963, 0.5380907491532528, 18.55850746229286, 7.3791435483587025, -1.3058220461101604, 8.538692132116461, -23.492426814231088, -0.1708304730775915, -40.11536974172577, -0.6325828249226341, 4.789534096125168, 1659.0961224963328, -7.709921822391348, 63.8942026144617, -74.3383220727353, 181.95602166741998, 1.9335192305687423, -2.2129663303887166, 37.381636630086135, -7.92393426028687, -5.3688053802259885, -7.58836742659798, 37.30667400514841, -289.09892489977165, -1.5147645904541234, 4.638068109618868, -404.80728791680815, 0.11727199345822248, -5.17258526833061, -0.88453949499092, 96.84857624186293, -0.6791965529867956, 3.1287918300191686, -16.961433290851506, 1.5339548611779197, -14.60241354508969, -102.09154806457092, 5.308359098845199, -1.3772386624093653, -232.4068932110028, -3.8957064753975845, -10.860809364864776, -72.69782329332983, -7.643980828800534, 29.900464193825652, 22.47046574607309, -38.204496819495844, -68.60271311500388, 0.2709521700788272, 99.82801908436845, -1.7001896396141027, -10.954337249511207, 48.09909863189684, -636.7156136663931, -45.30678925814974, 39.42329107604124, -33.87400944809508, -0.888696202396916, -8.30775287285587, 7.665066358799107, 8.77078230492006, -3.063228922635141, 5.418347424137075, -2.971743552900797, -0.6578858172171116, 0.05427922276379916, 1.9754929185067431, 186.95414732845305, 2.1375699883739276, 0.6836442570880665, -0.49780743275065514, 77.77706670862442, -3.2403854872213094, -3.3470142285219864, -53.72381101228183, -9.92185859389291, -2.275977293585001, 91.88617110386592, -18.507806840374368, 1.5759533799870984, -0.6476960553307466, 3.897754577067307
moran, 17, 10, -6.591058601959153, 3.9845482273187307, 1.4891831918640972, -0.0012138812743538257, 1.410553658247536, -36.95679092188526, 223.27736617109113, -405.5614218481351, -93.77769430308797, -3.447676219553667, -30.335770796507788, -5.5233891417267165, -162.25683168311335, 38.29729434702099, 0.03858303289970211, 1103.0016214122506, 19.545691601716257, -1.3309654444173054, 1.091783657242043, 44.81102677845124, -26.85331950132422, -40.59643504109257, -0.2986613297419696, -1.1553700447973703, -7.296733489000189, 0.02622904931834348, -84.82891342316526, -0.1069846677708906, 68.80079035232916, 7.673854734189464, -107.17556166525274, 5.178423625920011, 6.9450519826937835, -40.167046455229695, 65.28212621237289, 0.010733013866603766, 0.8426278801572286, -106.37411563000778, 7.538276490809232, -7.842499115128404, 0.9170324100439406, -70.82733534419877, 133.71990037496403, -522.8570778940158, -3.6350485189090556, -21.02279900969674, 76.35580404263084, 34.92717407793083, -30.14977628247299, -785.9162905392806, 2942.4308903599094, -17.266535370618513, 1171.3797123467314, 585.4782298391756, -162849.63433345678, -11.043553688614697, -58.239002446501345, 502.6789925602254, -15.26069221579216, -253.66055864671694, -7.052753043036503, 2.6103454878270154, -4.0355355404572, 0.35304171501887205, -29.927179132079953, 144.95602888953132, 0.6068080707844828, -158.17832131210514, 10.92947363317759, 304.96244506430304, 402.7447396471263, 1.6947223229922828, -6716.64876732004, 126.41524191854037, 149.89483837979304, 35.777999493349945, 3.4407343736332283, -1074.570088662106, 15.651800002056437, 2.9286332989004755, -24.319116914217172, 1.2987871757362692, 8.664011031602865, 1.2076074454740704, 19.888140199753604, -14.831936882744786, 318.39485151898606, -0.2598945173518478, 671.7558206516362, -418.23876660190285, -259.1241724723024, -8.118068136451845, -2.517720595126443, -5.007308633656817, -1170.1621060940165, -102.5163996093757, -7.759603095777467, -13.21035840026299, -117.57696286446293, -6.709912392275943, 92.23494118116048, -1.1908516033575114, 4.017441479564913, -22.44207861236139, -58.5580735208044, -1.488460288870136, -261.63357065972707, 815.7823623658439, 4.365346589632459, 710.6347221945853, 32.675442320809516, 14.616757267482871, 55.5510223780613, -54.89410315454424, 5.104923880980276, 218.53611147888253, -55.68428734140642, 0.8550674203105632, -119.0230544729146, -2265.2144981554384, 1312.7412734844277, -1864.6029248615469, 244.64179301872056, -530.66117571701, 43.39199994054776, 187.76850346307134, -27.074206690648143, -6.6798906758995695, -851.5163686109694, 25.35730178402452, 8.475193549454884, 16.369647855841098, -445.5471527477448, 612.0475246433214, 125.3428074364602, -20.162376975400285, -11.438563436635997, -11913.402171916483, 133.34200655440617, 247478.90825765827, -290.44917225298025, 96921.35023914522, 38036.796556892376, 41.87188025347344, -122.73567221563893, 372.84388916828453, 1586.4826959550587, 22165.528453920997, -6020.747940194222, 1935245.3380007346, 1072144.8643035286, -40814.91317838762, 282.35266000931415, 546155.0639819417, -32.103627765048216, 52728.69737181529, -23430.4604052951, -72.46221502299687, 4482.494355102205, -851.3022966537046, -5049.691481638615, 175127.51845795903, -401626270.20358884, 937778.9270833839, -67141.59501229732, 36025.98738113233, 65814192.95652794, 226.5637600724549, -214942.64805429868, -13542.753794304246, -18296.472011866987, 1793.863117227048, 49.456786264421496, -554471.6721550013, -2456.4573561229686, -5353.816166081244, -135769.74685837672, 26883.60934988193, 3608.4046294657587, -1314.909445642627, -51623.952200057574, -767190.5314024684, -441888.85906468803, -816806.175374135, 109.12557015080714, 0.573924678222981, 432.8082396312348, 139788.04625009806, 3358603.7324248743, -1.7999745943431649

