29.021994753071542, 219.61101763155014, 1063.1637806214826, 1.5402562950828715, -77.95303186313585, 267.89223675325087, -49.5387828788577, -2.6011267194406376, 7.9674134543620765, 0.36744774780513845, 5.705857800529822, 74.5118260372338, 3.7815106388865365, 21.61749723216825, 2.615374769007371, -4.956048693418373, 16.265812089010854, -0.5971830913092495, 2.713007610795036, -15.988422780527246, 41.18700942536512, -211.6875277650788, -31.37916591033693, -3.18731153755138, 18.832459315193752, 2.182876315654387, 41.05501370495859, 21.037499124712344, -57.26580763667314, -20.73478679472237, 740.6044026693244, -646.6449426951316, 0.44262545614783516, 494.2330468894694, 30.556660213698716, 343.9523623015607, 6.258536671356227, 1.0331025110993781, 62.81670440214398, 2.050717650327349, -55.29911348831866, 0.12013585846685129, -3.525491825550343, 0.8521619825666777, 3.4021706792885125, 65.68959431318048, 59.034749752903124, 1.3960644749995557, 2.123080169102119, 2.0050790443493076, 18.01173172947066, -1.9594306080033703, 3.7143617968441305, 22.876875520928664, 127.1242771884875, 0.0814516747526633, 0.4188117166094544, -22.619347347805416, -1.350231296139859, 4.609695056493578, 14.813685333260361, 1.8151813422230947, -0.6152760521682589, 56.3968593809663, 0.5291526645626778, 45.623429663362224, 1.4083765751129795, -1.7979107689200213, -133.3907099906686, 332.9190743029093, -16.69584638750235, 0.7547746912890307, -0.16129548581544273, 32.07685387989524, -4.777007155188058, -584.0074143353936, -14.203844806356123, -0.7125043485338549, -0.2532414942567335, 0.2424235301321644, -2.7332162070444226, -11.048512432203255, -0.5750784745602715, -6.583495964988355, 0.8021313004801964, -4.136750110674422, 3.422252093595686, 0.5684967669851626, 4.9238081210747495, 14.503412467481546, 54.52845388844175, 0.7444572732509133, -191.72509441846645, 0.5480848987938383, 42.27959932760183, 48.881469586945215, 148.71234309798186, 6.259832845972374, -12.448568209113635, 0.4971964655854716, -3.9250934452151536, -5.509873014504808, -5.003451989805698, -14.764803995567945, 1.144289717030508, 11.1813993197904, -799.551976894276, -2.305546912955449, 1.623001769439963, 0.5380907491532528, 18.55850746229286, 7.3791435483587025, -1.3058220461101604, 8.538692132116461, -23.492426814231088, -0.1708304730775915, -40.11536974172577, -0.6325828249226341, 4.789534096125168, 1659.0961224963328, -7.709921822391348, 63.8942026144617, -74.3383220727353, 181.95602166741998, 1.9335192305687423, -2.2129663303887166, 37.381636630086135, -7.92393426028687, -5.3688053802259885, -7.58836742659798, 37.30667400514841, -289.09892489977165, -1.5147645904541234, 4.638068109618868, -404.80728791680815, 0.11727199345822248, -5.17258526833061, -0.88453949499092, 96.84857624186293, -0.6791965529867956, 3.1287918300191686, -16.961433290851506, 1.5339548611779197, -14.60241354508969, -102.09154806457092, 5.308359098845199, -1.3772386624093653, -232.4068932110028, -3.8957064753975845, -10.860809364864776, -72.69782329332983, -7.643980828800534, 29.900464193825652, 22.47046574607309, -38.204496819495844, -68.60271311500388, 0.2709521700788272, 99.82801908436845, -1.7001896396141027, -10.954337249511207, 48.09909863189684, -636.7156136663931, -45.30678925814974, 39.42329107604124, -33.87400944809508, -0.888696202396916, -8.30775287285587, 7.665066358799107, 8.77078230492006, -3.063228922635141, 5.418347424137075, -2.971743552900797, -0.6578858172171116, 0.05427922276379916, 1.9754929185067431, 186.95414732845305, 2.1375699883739276, 0.6836442570880665, -0.49780743275065514, 77.77706670862442, -3.2403854872213094, -3.3470142285219864, -53.72381101228183, -9.92185859389291, -2.275977293585001, 91.88617110386592, -18.507806840374368, 1.5759533799870984, -0.6476960553307466, 3.897754577067307
