# name, features, hidden_layer_size, weights...
Evolved ANN, 17, 10, 14.920994181509778, -8.539421246554134, 1.6150777681580917, 2.1133839745099454, 3.139277603197329, 5.6073089903855875, 1.2893101871455475, 2.4515162433471858, 2.1799060574006854, -849.7818194473224, -0.5462821695841157, 14.075346888367086, -0.1077206029112968, 7.624028351513943, -14.723642904872566, -0.47056467181920375, -0.15272858722884597, -0.1667870345057203, -9.330207656247605, -7.201903893065708, 0.7222008172556904, 3.369875284705219, -0.25178793728167986, 2.1824742184012806, -284.292337958774, -2.0371764515038127, -0.4060750963524431, 0.2157312539968217, -0.4873289084475911, 0.7099388173802433, -3.1376006307014195, 0.31628563243348884, -26.069882396181146, 0.57658725316419, 0.6255304773897739, 0.11574707769043852, -6.724658017753541, -0.06168718094941729, -1.704573813012053, -21.053084484673565, -0.27906811892030864, -0.6592946544049232, -1.6522880946637706, -10.070715103357005, 1.9120237918736203, -8.381248251868456, -0.42375002332046985, -4.075091157956381, 5.852205040950515, -0.16887278728842112, -503.9800319502985, -0.8101004804354428, 32.96795077739276, -0.3505022538093938, -23.635260283225836, -0.6788655791960011, -3.7324573271823405, 5.210501178280269, 7.899371341588726, -0.37219584002539274, -8.590100977369616, 1.1951877751525553, -0.9725999589188156, -0.33034089637893205, -1.6874230655478766, 11.445205808265705, 25.508800948197486, -0.3232633677420764, -3.2801359754639527, 0.7995376207063848, 60.40795197689716, -0.6973191118154607, -0.0606902634645794, 18.761627341404377, 1.6106147916036295, 0.8952559555504325, 7.737989750542529, -0.08155796137522858, -0.2707603418821436, 0.8377391071724807, 0.7599744569869842, -6.5471193331012385, 0.04984626844358209, -0.9546393825548196, 0.3320730603700408, 8.12061599840428, -0.5586487381935316, 4.040878306422091, 2.24447343472202, -11.692072099260537, 0.3554078938672782, 0.9426944571138662, 3.0217729542605944, -0.2898778350971405, -9.528042013696693, -0.7908737822509964, 33.096610930739146, -0.11350519233454959, 0.4578615307378835, -301.61586589419073, -0.9433905899289174, -7.9850815282881085, 16.82495134955476, -7.426550428361391, 0.7823387911370989, -0.5930616323373504, -8.780861210306748, -27.96554907649343, -2.5356464175646574, 6.350179221288333, -3.058694370342431, 6.0971728186462535, -34.381871731785004, -0.8520828425260147, 7.745937635677921, -18.427922226016875, 0.18742462407203792, 0.7624744141906804, -11.376965305377842, 0.5137943475400424, -3.002550433196402, 0.7902109588465649, -4218.048877034596, -0.7585298993589994, 3.0855504457055196, 7.884180809124661, 1.8811641150347547, -0.965138462833793, 2.202796310895349, -1.5145312506057167, 1.9850892266233329, -5.446953946631405, -0.2624599713295459, -4.528521948056366, -87.84063254115298, 1.5864033886918087, 0.18654828525466285, 0.5189590159529605, -4.591979598068858, 0.04895538998569959, 0.005060619101347402, 1.0578108979883498, 3.291121378596104, -1.8986213534870875, 5.158289861855974, -0.10919419963736998, -0.5779851376477234, -2.92310972518996, 0.004062011737791114, -0.4811680813446637, -0.0809173068233835, 0.7176388332501142, -0.28740833712052716, -8.596418198927504, -12.392010102035053, -0.19025220226005865, -6.408742332162129, 0.21671177114693058, -2.010055169209548, 3.5211106460017993, -6.623636682631282, -6.298207738699384, 0.09629628969288118, -1.5906496462082083, 40.69630333710249, 5.578076407652192, 0.9873037395054352, 4.1246368805708755, 5.586014682561839, -5.169634595361068, 5.0267710234418175, 8.189532925869203, 2.52090646851362, -0.8760008415096329, 4.254991686226757, 0.00476046038928349, 0.40241499110653334, -0.04145512316612909, -0.22365267837870784, -0.40577464527176105, 5.808860159876369, -0.5090740661209461, 11.083481877045486, -0.994319001629201, 1.0065042165704814, 513.6857303903015, 1.576458223820881, 1.3857709244359848, -0.7827681760160742, 0.4011009259304046
Evolved ANN 5, 17, 5, 1042.4997550294277, -7937.858369783021, 25.818606328924748, -4.26070377439986, -168.96277998356356, -2.341257600473047, -0.07771589191183033, -0.5423944875015767, -1.5810736326692496, -5.16213101721316, 7.17816349844851, 0.8074964122636121, 0.21416319743457732, 5.538961473252522, -9.512898809828501, -0.12006356662369953, -280.082516613952, 1.8529621354893893, 26.817611147417185, 0.9820010728041374, -2.27725077434398, -0.8906807363846334, 55.03539131541135, -211.54099059075676, 20.792899954576107, -5.503012443532969, -280.9683636797514, 74.43564536095175, 124.14334411081369, -12.706254307082409, -6.933920984890429, -0.38476268064463015, 8.975175048181198, -1.6449542486545161, 8.26071827262421, -2.3810851684394456, -18.27825778507713, -67.57530677803513, -11.059397770595735, -0.4455897450240485, 3.2266501549486204, -7.6443085976596965, 63.44603031947662, -3.528482065643596, -5.076406291100973, 19.374734266507975, 1.5226203343728766, -0.44268278128779104, -0.8161698911312674, 9.61235271443554, 17.676650252285967, -0.7420227915598891, 0.07413481608374295, -0.8342895316168797, -0.6694872934600434, 10.430156762300522, 3.635766426950689, 0.1755334463387752, -0.9890251977872899, 0.42011087742859177, -2.820643154845354, 0.7207632754474798, 2.4153542760406044, -0.20532907625980434, -0.09578540868421094, -0.3248853993761196, -15.114073526949754, 0.7138749178582036, 0.012748683574398522, -5.151929171038222, -0.18168096204611683, 0.12321196817972058, -2.4823793808208254, -0.23381326045153722, -0.9949249013656158, -1.2493559896831516, -3.5801094837630747, 0.5272817536659411, -0.39953838013411125, 0.7048674167074584, -0.21423948660211947, 1.8969371420522172, 0.8784167200209325, 4.883426513866366, 0.07334277572312708, 0.9412829148198492, 2.2735749414879223, 0.3010358881711277, 0.7235472200870527, -5.497399729937924, 4.5921610714388805, 20.894513790044904, -1.1248646521466905, 0.5159194676598134, -0.5495447042819452
Evolved ANN 5 Noise 05, 17, 5, 36.09658586297668, 0.6952539724936835, 0.25408153362565666, -2.716917527921508, 1.4814972333284617, 0.6028513839595413, 0.6844245625855201, 3.1692219435987266, 0.38252236362186864, 1.9391294083527966, -3.862861782732417, -1.1698165279159176, 6.030593622578442, -0.01572148430725266, -2.8555260071081223, 1.0963444420994224, 0.6521617821418728, 0.6822580643203193, -0.8037548090720363, -1.2857522891844446, 1.812749840703618, 10.38366533568883, -0.92753084797665, 0.7956284912623364, 1.2824107161589482, 0.007162461983402757, -4.804756035200856, -0.10614690858208416, 0.9642612520922451, -0.7461782948308407, -0.08752907284016989, 1.6516347772173845, 0.12574121805820204, 0.25169759021622107, 1.9418514469044912, -0.7936284062348744, -2.7970725779402184, 2.8989776390747766, 1.7621738442237704, 1.1830828950636911, -4.090498199690915, -0.12874132803561067, 0.4235478626298035, -0.048641270392635313, -0.5501716762530418, -4.704898276070267, 0.6503799361905369, 2.577952198406099, -0.6795188895754238, 1.296597838175882, -0.3737944847620966, -85.15976687237185, 6.102036276642611, -2.8088932676390646, -0.48828493262736883, -26.963608575080933, -0.2598350087342174, 6.295368949518579, 0.5553586643839697, -0.4886330547154492, -0.950193360384372, 1.02123593321849, 0.2337953815949918, -0.2543229365214641, -0.7453530276997804, -11.789731922222716, 1.7996751330617449, 0.33041910493690574, 0.34899319879004986, -5.278900059749108, -0.8625743757531087, 25.60501573957309, -1.0089393778784306, -0.05911002350335779, -0.9705348135122142, 0.10162679358236236, 0.12989359918585044, -3.984478547851949, 2.5609134716737953, -5.389221793406115, 0.39689573124049193, 26.683723990557972, -8.840110627163781, -12.030562053354247, -0.7408392496259206, 0.8081369706063168, -0.5332328628031116, -14.746921413893938, 2.7450770166928335, 0.10401164939107144, 0.7569160301876849, 0.6760525036631198, -7.663612737767711, 0.8904272712588372, 0.25074448552630524
