-6.591058601959153, 3.9845482273187307, 1.4891831918640972, -0.0012138812743538257, 1.410553658247536, -36.95679092188526, 223.27736617109113, -405.5614218481351, -93.77769430308797, -3.447676219553667, -30.335770796507788, -5.5233891417267165, -162.25683168311335, 38.29729434702099, 0.03858303289970211, 1103.0016214122506, 19.545691601716257, -1.3309654444173054, 1.091783657242043, 44.81102677845124, -26.85331950132422, -40.59643504109257, -0.2986613297419696, -1.1553700447973703, -7.296733489000189, 0.02622904931834348, -84.82891342316526, -0.1069846677708906, 68.80079035232916, 7.673854734189464, -107.17556166525274, 5.178423625920011, 6.9450519826937835, -40.167046455229695, 65.28212621237289, 0.010733013866603766, 0.8426278801572286, -106.37411563000778, 7.538276490809232, -7.842499115128404, 0.9170324100439406, -70.82733534419877, 133.71990037496403, -522.8570778940158, -3.6350485189090556, -21.02279900969674, 76.35580404263084, 34.92717407793083, -30.14977628247299, -785.9162905392806, 2942.4308903599094, -17.266535370618513, 1171.3797123467314, 585.4782298391756, -162849.63433345678, -11.043553688614697, -58.239002446501345, 502.6789925602254, -15.26069221579216, -253.66055864671694, -7.052753043036503, 2.6103454878270154, -4.0355355404572, 0.35304171501887205, -29.927179132079953, 144.95602888953132, 0.6068080707844828, -158.17832131210514, 10.92947363317759, 304.96244506430304, 402.7447396471263, 1.6947223229922828, -6716.64876732004, 126.41524191854037, 149.89483837979304, 35.777999493349945, 3.4407343736332283, -1074.570088662106, 15.651800002056437, 2.9286332989004755, -24.319116914217172, 1.2987871757362692, 8.664011031602865, 1.2076074454740704, 19.888140199753604, -14.831936882744786, 318.39485151898606, -0.2598945173518478, 671.7558206516362, -418.23876660190285, -259.1241724723024, -8.118068136451845, -2.517720595126443, -5.007308633656817, -1170.1621060940165, -102.5163996093757, -7.759603095777467, -13.21035840026299, -117.57696286446293, -6.709912392275943, 92.23494118116048, -1.1908516033575114, 4.017441479564913, -22.44207861236139, -58.5580735208044, -1.488460288870136, -261.63357065972707, 815.7823623658439, 4.365346589632459, 710.6347221945853, 32.675442320809516, 14.616757267482871, 55.5510223780613, -54.89410315454424, 5.104923880980276, 218.53611147888253, -55.68428734140642, 0.8550674203105632, -119.0230544729146, -2265.2144981554384, 1312.7412734844277, -1864.6029248615469, 244.64179301872056, -530.66117571701, 43.39199994054776, 187.76850346307134, -27.074206690648143, -6.6798906758995695, -851.5163686109694, 25.35730178402452, 8.475193549454884, 16.369647855841098, -445.5471527477448, 612.0475246433214, 125.3428074364602, -20.162376975400285, -11.438563436635997, -11913.402171916483, 133.34200655440617, 247478.90825765827, -290.44917225298025, 96921.35023914522, 38036.796556892376, 41.87188025347344, -122.73567221563893, 372.84388916828453, 1586.4826959550587, 22165.528453920997, -6020.747940194222, 1935245.3380007346, 1072144.8643035286, -40814.91317838762, 282.35266000931415, 546155.0639819417, -32.103627765048216, 52728.69737181529, -23430.4604052951, -72.46221502299687, 4482.494355102205, -851.3022966537046, -5049.691481638615, 175127.51845795903, -401626270.20358884, 937778.9270833839, -67141.59501229732, 36025.98738113233, 65814192.95652794, 226.5637600724549, -214942.64805429868, -13542.753794304246, -18296.472011866987, 1793.863117227048, 49.456786264421496, -554471.6721550013, -2456.4573561229686, -5353.816166081244, -135769.74685837672, 26883.60934988193, 3608.4046294657587, -1314.909445642627, -51623.952200057574, -767190.5314024684, -441888.85906468803, -816806.175374135, 109.12557015080714, 0.573924678222981, 432.8082396312348, 139788.04625009806, 3358603.7324248743, -1.7999745943431649
