-0.1932447031984008, -0.7446101742994538, 0.31217646371705454, -0.48572498194449787, -3.7052715797714106, -0.4432076777351315, 0.3546918355636688, 0.22868585591090218, -4.730485063689334, -2.0502535635757004, 2.183062842681558, 311.7372489230598, 1.8583217861436194, 2.1342359512104383, 47.450311206121384, 14.83762640672004, 9.887275280000788, 10.291836426040534, 32.91132697350025, 0.22343818048558048, 5.031673337759548, -2.0399838937662893, -0.7691623449418397, -7.964520503325253, 186.42312059326136, 197.98533015583584, -2365.2049807388025, -6.329526255732363, -137.6181578791066, -26.565234553383174, 44.57640453073688, 86.54743533656057, -286.84382303035227, -40.17686503376645, 39.79975824481284, -5.355696414333207, 1.1970389675478625, 7.946042399129486, 5.545548156311507, -2522.922476278499, 2.9650554044302204, 1.3691525126444013, -4.628836530879256, 0.0013947257297745172, 0.06951437238133287, 58.910571957875455, -15.003367009949912, 8052.591961937392, 29.8817206090591, 86.33055981681109, 0.3301872226110532, -872.25639397671, -35.56321272045202, -30.151677783498933, -6019.741981139402, 0.6967963700506701, 1168.5533905893303, 0.2540370656068567, 32.8124586353443, 10.266507016137476, -1.7871614303635048, -77.1385391985306, -4.242988991724761, -1.1804062935373898, -4.307360822451314, 0.002453602144382394, -2486.287144282406, 1.6255447773533618, -23.24416533106994, 44.169854499199054, -6.369522515549081, -7.875972614892928, 1.2160314684614733, 132.3900688455402, 3.9861612456339532, -734.9706601521938, 2.137177495648378, -30.178033729799534, 12.853380481590802, 12.547018217173767, 1.152957992535338, -0.7632413558386287, 1482.255134178344, 19.191686617923395, 34.57203772853261, 31.043619688164284, 119.41866407709857, 1215.2446062857925, -146.8280579114027, 110.44807260388082, -1.3671369024481905, 839.0290341748058, -3.4057014514851423, -0.4716147341377537, -169.72722659131568, 46.47151485633277, 12.807966435453396, -2283.9384419640187, -1.206124695847798, 14.642046634784885, -174.2274029599864, 34.03414128606662, -9.118530457650023, -30.40925498635815, 2.8172582165489577, -0.6560690510797738, 275.4362266696752, 3.9551295203787995, -39.536439711950614, -32.13690332676478, -9518.558319447804, 38.70946186165252, 2.90982351830602, -2.793489137355728, -373.5833351405104, -133.95018910733464, 9.846280849073082, 4.3803175137312, 0.6807498416954524, -6.04335184327944, -1606.7800628555722, 4.615790211863616, 16.264721197764718, 0.6492581873222437, 149.4599073525507, -201.24301792772152, -5.136488982905772, -126.38949889766259, 142.81067597993237, -5.263596750528506, -0.5650996609668852, -1.0359798302278418, 15978.355348395404, -1.876521179471483, -20.417917033216817, 58.37567974311222, 4.872638335610547, -59.042991347065794, -3.971821961081547, 0.5281651577812948, -826.6262849504714, 5.06289333452739, -40.29687418312338, -1.2851273939062875, -4.574384626256734, 9.598156197971061, -219.3379310095937, -1554.8262708255436, 30.672912498139226, -55.31845978684436, 18.958217459171333, -93.4515807186916, 12.269488477870292, -271.0589057980597, 109.93814773570708, -28.026554372421764, -157.53454230236613, 3.4085982572519877, -35.0326664534766, 50.44684232078376, 1196.1785750344031, 1572.1572266836872, 9.739976731464711, 149.31409906880796, -130.29277989793107, 73.53839187132759, -0.6453488043133336, -47.228249376503285, 6.358584888583854, 3.523846695991381, -21.184142715011166, 224.08928507073736, 0.9071137031027596, 0.3188073652067376, 4.687781442393418, 0.13070795847228905, 2.1083924246723913, -2.3673621832208562, 884.357151809461, -14.862624277673385, 3.0232278088624414, 318.3301481955919, -50.55260577714849, -1496.605434720864, -28.41581906890881, -2.482993320605766, 10401.120912952767, -2.0430537500113117, 1.2896962082282897, -402.5233219458715
