-0.003576751877069098, -0.009116435789084176, -1.6226750298069816, -0.16936583840464212, -0.24767811424335412, 2.917597689195209, -0.4660835078234858, 2.6077233900451704, 0.007654525451496821, 0.24926329904868214, 0.21300509813065255, -0.0008610492369117186, 11.910547784868735, 2.450594158758787, 0.438355335722304, 0.006477151246808702, 0.5741536766363411, 0.02462418508554424, -0.0012988442322510215, 0.0007818404074661314, -0.002036906591412471, 0.016377924735041065, 0.04992731920552376, 0.0012509393723994738, 0.6973411226261182, 0.0006254912910491841, 0.00047099174257766177, -0.002120731786945985, 1.1254335327814609, -10.370786178893706, -0.00012469149030800645, 0.14436761320287467, 0.05611140973019576, -0.0016366743010876627, 0.00017168216291285577, -0.03946773816864551, -0.027087785966378175, -0.0007127387952544514, -0.004271912479467591, 0.5150421588241055, -0.22941179431864933, -0.0095554420516546, 0.11309512942058234, 0.02928026671350157, -0.004271549294336798, -0.0003315179614494489, 2.211285732697422, -0.11740200028568301, 0.0009962379719110528, -0.01111880489200713, 0.38552547023537326, 0.6318823670906345, -0.0004549864001234058, -2.556634055201679e-05, 0.052307029094913166, 0.8482608143343549, -0.7883518269801311, 0.032301738665859676, -0.0014778900364928135, -0.34455529892325604, 0.008125911048136848, 0.014152066117414049, -0.0019236013490204697, -0.003920029943239384, 0.029085767655998903, -0.0008784550881728423, 0.3435901596510554, 0.24771915413070683, 0.002312235900247917, -0.0003165849275334269, 0.0005596038341596242, -0.0024919150553704052, 0.05815458270598197, -0.1937018502492227, -1.8250738932528443, 4.157186180134131e-05, 2.943061662102853, 0.010778535125806234, -0.032512597224797754, -0.0003246595897432385, -0.0002458206802779675, 0.1541076435270061, 0.0037925444350366067, -0.6188869890845022, -0.22716430588908995, -0.01181908469964059, 1.5038480327390307, -0.14416872049137233, 0.0005042076266357683, -0.017810077795893765, 0.03526366076440114, 0.011060422025572895, -0.021332183741068406, 0.002780275496938823, -0.026230933918782513, -0.0008086310525332234, 0.17064687599674258, 0.2726954877308398, 0.06579094358724917, -0.1520859776087798, -0.003111942863901281, -0.0006907666533775145, 0.3541898175141693, 0.0009279324771965426, -1.02678577891704, 0.14334521747927695, -0.004071610961189254, -0.001207893735478954, -0.011071821668055959, 0.000339516787811465, -0.012354976869052762, -0.017792122689835564, 0.04000839684019883, 0.0007450282331100439, 1.7663136890716324, -2.8277851231760667, -0.013925796175438333, -0.7759116432724652, 0.9526400227212101, 1.3224921501299892e-05, -0.0472823771149402, -0.32139561926038845, -0.16281957543641462, -0.4544552413988827, 8.104457695593522e-07, 0.0012604615893040117, -0.2708836008719851, -0.015954274981653523, -0.18085568354803125, 9.719261607120993e-05, 0.008911006689136518, 0.6283406438091257, -0.020845703085579134, -8.2991081457223e-06, 0.1680487638909446, 0.12338311971516569, 0.6374359553174332, 0.0068708780599514305, 7.161994834226168, 0.037717458897906064, -0.08166498393224347, -0.0003866864661065885, -0.035928030476597095, -0.5306343046712498, -0.03731815115135128, 0.1601186601162489, 0.061793412985435066, -0.008245437643649127, -0.1329836372733803, -1.0593300674284343e-05, 0.006000911165890601, -0.024349113092127842, -0.038064952345485834, -0.6717215031589087, -0.25600136304175464, -0.00013788514988313308, 0.10903737627345898, -0.04109950353425148, 0.0011818144689657514, 0.4612177668674218, 0.017157983078021726, -0.0002922370212791781, -0.07461385101326228, -0.03691138985965549, 0.0002672500155187832, -0.4629422134737055, -0.03204962494694291, -0.0398035296303568, -0.0019614192106946335, 0.07062072632793034, -0.3807648841924845, -0.4077410732754568, 0.6351755873193442, -0.0012896440044397849, 5.964694012083687, 0.02153817770055385, 1.4528610065395318, 0.015807271234472182, 0.061063626330635286, 0.0022982937511943397, 0.00036535725718584393, -1.2067515566616847, 0.7988787224726943, 0.0003472294024470962, 1.7209686798616755, -0.11950387113947813, 4.59513750232414, 0.020556451924523336, 0.004404012690064921, 0.4359433744065976
