# name, features, hidden_layer_size, weights...
Evolved ANN, 17, 10, 3.459899447605539, 2.1318404265386586, 13.17966613895038, -6.192108007790158, -0.37086706789610013, -0.3896626810316768, -0.3866099292858918, -0.5945768318137592, 8.657276286604098, -0.31582965913711214, -12.77263491874852, -3.7221902888177283, 0.7700315120556411, -33.026063114130366, -0.6766419579791423, -0.9319070818093544, -12.214457623430176, -0.7005949704263965, -0.9248704722582742, -0.30575483808901427, -0.6882322381266356, 0.492463682676912, 0.4162176461180324, 2.2349377906341243, -4.828561111548519, -1.9512825291316083, 15.234656539966528, 13.201167624183022, 2.128673097211623, 2.92411276919898, -0.7547167660636005, 1.199314577481091, 0.06760026684238629, 0.7832939406545589, -177.49932309404323, 6.89500655807993, -0.08284645051120698, -0.799724698184292, -8.207688126907367, 17.450767180301746, -19.54570476880868, 23.570589723652876, 7.443462688149636, -4.262126715956444, 51.789933932119446, -0.9595303137934914, -0.015387143246637383, -1.6996871126483133, 0.5326556419474413, -0.8690658866365495, -0.747871482057276, -0.1990663384836313, 0.7376303253285281, 19.692218213944003, -2.920745672290689, -0.2877252920885854, -5.351299019427598, 1.1722532499353777, 1.3902788805171062, 0.38849134405949914, -5.729822642840242, -4.641822939824729, 0.5691745664669388, 0.30905426295392857, -8.85980449965398, -4.732837361082687, 0.8831193558694339, -0.9520915826182503, -0.5355473390079997, -22.037852229409136, -0.9596756645256569, 0.15632020854402362, -24.710657392303975, 21.00195680553553, -6.099731246259528, -0.9426766932743909, -0.7194608598270196, 3.4908551710867917, 0.1371367081336668, -0.9960642361403127, -0.23395001734734366, 0.7974681865981025, 1.1178545864789984, 0.0309085368898055, 0.3709257972027509, -0.7705906687715782, 0.3106563294379545, -0.006111882508708552, 0.01778595332796895, 0.5677955352244695, -0.04300357455768222, -0.8378512149555155, 0.4517674874175419, 0.026356153000395066, 8.559746666840512, 60.1036518587203, -11.066045796708, 1.9547952088765457, -1.2572770384601373, -3.1565358568060065, -0.39428165742075283, -7.976304408878465, -12.979182222761667, -0.8903476091382874, -0.044046900475693686, -2290.612969360032, 3.1361101611630904, -4.744165899359072, 1.5590913900932555, 23.589552731167824, 3.696503591016147, -49.0193733334204, -0.31155127179562386, -12.893291340674148, 3.355621906094085, -1124.6168527572167, -8.611905802129927, -5.495486462660128, 9.317002862904996, -0.928102034629926, 0.9862671193437127, 71.6360157474848, -41.78727928552422, -0.08938630210606524, -25.475912160872333, -1.6296570038831701, 3.721506342123227, 1.2616295894267517, -2.16674011456336, 1.0608792593103447, -1.5348732560098246, 0.6488189032682272, -9.554624561640432, 0.9982451738644897, -3.585518099583287, 2.3410371683096507, -1.059363823436213, -36.03382554076086, 49.400216254399005, -0.09560108506061127, 22.265326907988467, -1167.4125713033582, -827.3412289305065, -0.2817962724984171, -12.585799415544116, -0.4968822378372789, 81.10836010264876, 0.7230863554676401, -3.7241902674476655, -0.9757756717170544, -68.02893974316859, -2.2396567795647564, 0.07066110212550569, -1.250920612229347, -0.046887193108303915, -0.7680639795702753, 17.937616126439604, -1.1019678164169133, 0.07411014749198457, 2.056144561078099, -0.9166833148022522, -27.361514430051557, -2.3877636883795264, 2.2300576943504535, 447.438860571402, 0.45131006835733695, 10.58847351640523, 1.9849158213808964, -1574.2103557260862, -0.7371599837780478, 0.9086264191508042, -0.7828307535556679, 0.3300464039361075, 1.81242958242284, -3.610267708304238, -0.973651955724061, 0.1209299242691169, 2.9843573498979894, -0.11277293056015156, -0.7439895632451479, -3.8649914641316685, 0.9782080851048618, -5.053463725816831, 3.5891164827308604, -3.7958700956913, -2.8572114118106247, -0.41818946926149336, 1.4695517340149908, -0.026854015704181288, -0.02788909596479816
Evolved ANN 5, 17, 5, -28.102635339566508, -5.270221138740612, -1.7991915039829207, -19.860573976774578, -24.60513164187047, 3.8162913045444635, 0.023473769583907095, -54.50321528122049, 10.003539037251969, -2.3346147693972115, 16.73844151591633, 0.3100810247981438, -169.33492203029917, -5.724230282870263, 0.8526201446384842, -0.22605058147685014, -17.835641849307482, -0.7043679829900225, -10.486007034199204, -3.0550187074781925, -0.6810531857496793, -4453.796912952781, 33810.53059746947, -10848.78737197365, -118.11626381871724, 93.18879667509046, -16083.650736874622, -13.725703495018438, 50.10494647994167, -7.604207807021347, 90.77373268627657, 1.595074916653774, 2.7557812139573015, -39715.109221929466, 28.904911685140643, -0.43899423549864697, 5.768080489913274, 5.295125125995148, -2.546634014137431, -238767.20745174124, -3.5528156876545527, -4.9527347193332965, 1115.2695575158439, 4.174668501799942, -14.649495628121237, -23.25321447104678, 0.5500236215768699, -20.73180030629891, 0.5694594098639599, 9.126335853167467, 3.566801760870098, 1337.557828195395, 7235.478182255781, 73866.16381328272, -857.4430471718431, -924.9591765734541, -3518.967885192465, -1.9067958478325906, -6.633454070601698, -14.521354381912227, -2885.6120623623256, 22500.261088902847, -2.151057666676581, -1132.4844452804136, -320738.9350600944, 95.16925312662866, -5656.2165411116075, -45086.65321702537, -27.563351028422737, -2.61387586136827, 371.56363217654854, -303.4084110871267, 6.983609633015089, -47.030329656598646, -32.801150369212415, 106.5993554145673, -1488.6548395800542, -76.76127924999216, 228.98568852459917, 3.1681704936401016, 7.847547722960641, -17.600408577355783, -10.176187185243615, -2.8861364567007923, -6.112911717298348, -335.90148548509376, 52.34158411280463, 1272.9680157062762, 22.881750122081684, 533.1837365484016, -0.6762316764182235, 4.4063523628928465, 4.139696013585834, 124.12127527435491, -128.06733876616389
Evolved ANN 10 Noise 05, 17, 10, -0.015817399618489363, -0.7632412815139299, 37.424813196066644, -44.184352748697336, -0.2499816029161932, 0.19351652249121765, -0.43241442124740725, 0.6950693540885176, 0.03164700321372438, -3257.963202406683, -320.0522914488735, -0.7897105564974849, -2.067493567344177, -39.37577900958631, 56.765407838463815, 2.662599898941444, 151.23888244052563, 0.18320765964022212, 6.28508093049647, -3.06390519413108, 9.14260011647983, 14.089078468312021, 185.84835802335846, -0.12463250369104295, 2.887969498676227, 0.9986721229610085, -3.7087159263186957, -16.122769681854965, 0.81266548657443, -11.411659014219465, -2.0338137092181494, -15.0646913863937, -4.665359508147187, 0.17759777985832878, -5.217395422189055, 62.47251044824642, -0.31020051415148103, 8.516004088316969, 0.948625216212855, -171.44024747088474, -0.8223564453720416, -18.318250869539632, 2.4178686339403495, 60.04823557697727, -0.9359618138035435, 5.436454967357185, -3.6599068066634923, -3.530259103607783, -0.5139191150359982, 9.476287710229544, -3.3147042562659275, -40.64159743266552, 0.12225450726743849, 1.9934212667549258, -106.56078089546098, -0.24664384723223834, 0.16429535877958554, -36.07529940138031, -0.40937773867782146, -628.8097230729408, 0.848520561935717, 24.273903232098125, 208.49476091277964, -84.25746161819112, 17.88975953140745, 2.2559941155388272, -133.71586422073653, -190.36491406443827, -0.21704461651547718, -176.35054549385302, 1.7278075180830799, -0.3217357779157849, -91.44459436122273, -8.877113621076306, 1.2928163740431446, -32.37717531284135, 25.550321147704057, 3.686545857845537, -1.9679871631989079, 3.964961887011692, 1.3164183428911438, -0.5530791287329397, -11.858061504914374, -1.2517133175160833, -0.6565441476880811, 0.4704552384905986, -255.97826137090675, 2.2583595011781243, 8.850708614824015, -156.4602949089167, -43.955423217036675, -3.673067168605168, -1.8143040167811126, 116.57375642541581, -45.91635057380399, -0.084681060274514, -17.454311769571312, -0.01010774413723483, -0.6498601374965056, -1.4526464884712744, 1.4358857632950535, -4.491283853799498, -2.1651841216424876, -0.28199857907194853, 2627.0948106292763, 655.8169330100817, 17.44199217703947, -0.049185498322861225, -0.18842179501909023, 6.259402479265007, 14.518438686949814, 0.5054940519229911, 0.0008036145650957465, 0.16953003294805558, 19.989395965174204, -149.58056689479682, 0.9616578052790533, 13.504364193571964, 1.7939330635174764, -3.0695496095518147, 0.5013892389268351, 47.02597666475485, -260.61218297656734, 10.01463965086842, -25.177642576966782, 0.7457652518002037, 0.22670584726955392, -539.4305878788236, -0.7559737107417839, -0.827172029334674, -17.33078129355764, 3.1126850185746044, -0.02571164460503375, 6.7771345345307195, 0.31344784950941373, 9.129656542495685, -43.77501151340641, 0.7471203485074696, -0.5259432437878361, 24.903444134586557, -7.67723834979811, 14.528456918699789, 0.9634010867347633, 0.21205086690916633, 16.233440926891635, 14.99126373399326, 3.015863122598319, 2.8586532813380554, -0.35317271423965013, 4.25883907814484, -2.293816576866582, 0.3073938726886807, 3.3350795745811914, -0.199434026589139, 0.5161360227592727, -0.25390958675695613, -3.3683027800043557, 37.41257411646365, 25.443574994606703, -18.96364861918664, 56.11209447223345, 0.3572095324401299, -32.00751373667595, 2.382753869362413, 41.440042534493216, 5.049900844219051, -0.6070774577893484, -0.8890611234682675, -2.5470982612627795, 3.751863352720738, -0.0007200187896204602, 30.588521572939833, 1.6652977367034176, -0.065600135548389, 0.12412602181093083, 311.33170169179806, 0.5885043605880133, 0.37373109109695407, -20.182302965730663, 4.890466231033172, -344.51023032529315, -0.007731016495662085, -6.0298083811521925, -0.2177994306654961, 10.595860182465854, -0.06590573431796054, 3.7230319117831914, 0.742550717395809, 0.8946446248498088, -0.31545408535819974
